# hidden_weights rows: [bias, w_x1, w_x2]
-0.05718 0.08640 0.07455
-0.12323 0.09544 0.00742
-0.01093 0.04828 -0.07304
-0.15898 -0.11536 -0.14737
0.08743 0.20302 -0.02482
-0.02542 -0.00141 0.04226
-0.10129 0.14088 -0.03889
0.05090 -0.03214 0.08826
0.13621 0.10253 0.09231
0.02991 0.05687 0.03546
-0.07486 0.05563 0.17327
-0.13695 0.07656 -0.06294
0.06152 0.03399 0.05833
-0.08300 -0.08486 -0.08174
0.09226 -0.14129 0.02515
-0.10343 -0.05206 -0.08257
-0.03049 -0.02414 -0.06481
0.05021 0.00885 -0.07767
-0.17538 -0.09415 0.12375
0.09102 -0.06468 -0.10664
0.00705 -0.05367 -0.05025
-0.01238 -0.07408 -0.11817
-0.01746 -0.07539 0.12318
-0.12646 -0.04881 -0.10821
0.06309 0.06047 -0.12166
0.13309 0.04518 0.16694
0.08617 -0.07010 -0.04023
-0.07766 0.13346 0.07970
-0.02857 -0.00199 0.11272
-0.08527 -0.01413 0.11557
-0.12139 0.02134 0.06958
-0.03099 -0.14943 -0.09358
-0.02243 0.15725 -0.04779
0.20173 -0.05329 -0.10933
-0.09271 0.03804 -0.00121
0.23164 0.01546 -0.08842
-0.11990 -0.10799 -0.03990
0.01152 0.09149 0.09296
0.23418 -0.03083 0.22241
-0.12499 0.00699 -0.21411
-0.01877 0.02240 0.01882
-0.04355 -0.07235 0.02290
0.07596 0.16382 0.07699
-0.06773 0.10185 -0.09704
0.14654 0.04086 -0.06144
0.16699 -0.03223 -0.10440
-0.10317 0.08841 -0.03564
-0.11877 -0.04121 -0.12933
-0.20687 -0.03747 0.00055
0.03670 0.13689 0.11649
