# hidden_weights rows: [bias, w_x1, w_x2]
0.21594 0.11264 0.11043
-0.27221 -0.05474 0.03364
0.10084 -0.00823 -0.07646
0.00335 -0.01626 -0.31889
0.02079 0.00396 0.17173
0.09869 0.06111 -0.04753
0.01804 -0.18002 -0.08600
-0.01725 -0.10558 0.07398
0.05191 0.20101 -0.17293
0.07232 0.08390 -0.08154
0.00787 -0.00738 0.07136
0.06437 -0.00578 -0.03244
-0.01894 -0.17569 -0.03721
0.03532 -0.19430 0.03025
-0.15013 0.09257 -0.06570
0.12864 -0.11174 -0.18384
-0.01102 -0.14571 -0.00833
0.13417 0.08664 0.01548
-0.01361 -0.06449 0.17493
0.06315 0.01022 0.13272
-0.16867 0.05200 0.10708
-0.07681 -0.12777 0.15677
-0.17473 0.07813 -0.04860
0.02823 -0.23656 -0.03791
-0.04182 0.08599 0.06447
0.08030 0.13475 -0.13599
-0.01647 0.24039 -0.12570
0.05423 -0.04647 -0.24004
-0.01865 -0.00922 0.01870
-0.12347 0.24687 -0.13524
0.02142 -0.16447 0.13765
0.01102 -0.23519 0.09580
-0.02982 0.04640 0.07428
0.07146 0.03803 0.04701
-0.08006 0.13128 0.19180
-0.02530 0.08083 0.00149
-0.09157 -0.15145 -0.09465
-0.08450 0.17063 -0.00167
-0.16351 0.04636 -0.04923
0.13611 0.02785 -0.11996
0.08902 -0.22783 0.08485
0.14177 0.08186 0.20041
0.03753 -0.14856 -0.01897
0.13772 0.06603 0.15473
0.01784 -0.23547 0.00714
-0.06130 0.16106 0.01419
0.18525 -0.34829 0.18883
0.12597 0.26103 -0.03267
-0.02432 -0.01651 0.04956
-0.05058 -0.08007 0.05409
