# hidden_weights rows: [bias, w_x1, w_x2]
0.06232 0.05847 0.04912
0.11215 0.12510 -0.08742
0.06722 -0.05018 -0.06713
-0.08424 0.11263 0.10639
-0.00796 0.09544 -0.01861
0.17132 -0.15956 -0.13840
-0.04748 0.03705 0.01066
-0.15494 -0.06829 -0.11778
-0.12457 -0.09083 0.03819
0.05327 -0.20232 -0.02630
-0.09567 -0.02384 -0.15938
-0.09050 0.12057 -0.07763
-0.00010 -0.04119 -0.06106
0.16062 0.03641 -0.02237
0.01027 0.04358 -0.10897
-0.09706 -0.28930 -0.00829
-0.00952 -0.05644 0.25490
0.10911 0.08889 -0.18178
-0.12173 0.03836 0.02541
-0.00555 0.09023 -0.14052
-0.25125 -0.07706 -0.03572
-0.02832 -0.15800 -0.03085
0.02136 -0.03499 -0.09078
-0.01947 0.05126 0.00346
0.06097 0.20477 -0.05161
-0.08227 0.16317 -0.09176
-0.02513 -0.08101 0.04107
0.04434 -0.13357 -0.00355
0.01120 -0.00741 0.15921
-0.03898 -0.05733 -0.05131
0.13451 0.00830 0.07236
0.03735 -0.19908 -0.07312
-0.01021 0.01392 -0.04628
0.01708 0.16596 -0.11082
-0.02380 -0.10208 0.12765
0.07130 -0.07135 0.12453
0.06855 0.12147 0.12669
-0.11276 0.22380 -0.13912
0.00515 -0.17027 -0.08076
0.02059 -0.04111 -0.00200
-0.02111 -0.09640 -0.01245
-0.00963 -0.15423 -0.03232
-0.18130 -0.02078 -0.03582
0.14412 0.11213 -0.16577
-0.10260 0.03155 0.12270
-0.06675 0.02141 0.03906
-0.31429 -0.00958 -0.06222
0.10364 0.20137 0.03874
-0.02291 -0.02337 -0.10813
-0.00366 0.07595 0.11632
0.04001 -0.09635 0.00432
0.03268 -0.07383 0.04522
0.07845 -0.12198 -0.03974
0.08038 0.09574 0.09480
0.03921 0.00610 -0.06224
-0.16691 -0.03730 0.02950
-0.02263 -0.00570 0.01277
0.09333 0.16354 0.23959
0.00508 0.00206 -0.11056
0.10936 -0.01115 0.12532
0.18119 0.10046 0.07026
0.04387 -0.10540 -0.13913
0.02927 -0.12501 -0.02405
-0.03273 0.31166 0.02581
0.01511 -0.02899 -0.08181
0.01736 -0.08719 -0.09519
-0.05425 -0.09526 -0.12434
-0.03865 0.05952 -0.00394
0.04114 0.11714 0.29540
0.06557 0.07055 0.07706
-0.00589 -0.05882 0.25049
0.10368 0.02692 0.20931
0.08852 -0.04799 0.10400
0.06580 -0.04759 -0.11994
0.18517 0.07038 -0.18581
-0.31180 0.00565 -0.17716
-0.03826 -0.19968 -0.02278
-0.11426 0.03030 0.03449
-0.08427 -0.05676 0.16515
-0.11242 0.08594 -0.01443
-0.09421 0.04433 0.17323
-0.07194 0.08490 -0.00431
0.06488 -0.08247 0.05616
-0.05819 -0.09506 -0.11495
-0.06268 0.01756 0.03832
-0.13972 0.03185 0.00748
-0.24515 0.02349 0.08093
-0.03208 -0.13082 -0.10784
0.13911 -0.01240 0.08909
-0.08209 -0.14807 0.03005
0.04128 0.00571 0.05094
-0.10000 0.00321 0.07209
-0.07269 0.01177 0.06704
-0.04949 0.09795 -0.00267
0.05523 -0.00267 0.05141
0.08469 -0.01563 -0.23260
0.08889 -0.14978 0.06663
0.02905 -0.19793 0.07141
-0.02061 0.06160 -0.09956
0.07853 0.06638 -0.09282
