# hidden_weights rows: [bias, w_x1, w_x2]
-0.10547 -0.05534 0.09760
0.00366 0.04175 -0.01777
-0.01531 0.08032 -0.23191
0.03645 0.16641 -0.36897
-0.07980 0.11098 0.06415
0.24248 -0.01532 -0.15942
-0.11425 0.00208 -0.11383
-0.22228 -0.15318 0.08158
-0.07597 0.17519 0.02022
0.05627 0.00129 -0.11665
-0.15331 0.19125 0.29916
0.00199 0.07680 0.14984
-0.19965 0.04284 0.06884
0.02049 0.08251 -0.01607
0.01327 0.04492 0.04341
-0.05695 0.14506 0.10539
-0.05450 0.16605 -0.10441
0.13804 0.13310 -0.05646
-0.20088 0.02729 0.08972
-0.15549 -0.00950 0.10489
-0.18079 -0.01053 -0.03816
0.07188 0.00002 -0.21816
0.02205 -0.15847 0.19522
-0.02194 -0.15706 -0.13205
-0.14852 0.06109 0.09171
0.07104 0.11109 -0.02080
-0.07865 -0.15328 -0.03410
0.02490 0.04904 0.10592
0.12990 0.21499 0.06926
0.13057 0.25749 -0.04061
-0.02208 0.03510 0.02069
0.09923 -0.04953 -0.05790
0.10109 -0.15424 0.10675
-0.14186 -0.02128 0.01626
-0.19500 -0.02800 0.02694
0.17175 -0.03099 0.04812
-0.00393 0.14949 0.05888
-0.05180 -0.08901 0.07124
-0.08198 0.11920 0.08239
0.09134 -0.16127 0.09053
0.00751 -0.05079 -0.03380
-0.05555 0.01484 0.00419
-0.15284 -0.07563 0.01418
0.05459 -0.05389 -0.01069
-0.03747 0.08596 0.06573
-0.02978 0.08239 0.14106
0.08832 -0.04593 0.02932
0.08465 -0.06869 0.20792
0.06297 0.03880 0.00084
-0.00113 -0.04280 0.05318
-0.08608 -0.04018 -0.11091
0.00126 0.00303 0.21631
0.03990 0.08427 0.01616
-0.10784 -0.11890 0.11229
0.06203 0.09572 -0.08962
-0.13024 -0.22516 -0.04174
0.08190 -0.01956 0.14538
0.06075 0.02953 -0.17685
0.06549 0.14014 -0.01609
-0.22794 0.12867 0.03686
-0.08233 -0.02535 0.07221
-0.01041 -0.20711 -0.03612
-0.06149 0.12725 0.10934
-0.07476 0.15577 -0.03051
-0.09505 -0.09162 -0.04266
-0.01782 -0.03603 -0.07329
-0.04248 -0.06795 -0.03259
-0.05455 0.12935 0.03292
-0.08150 -0.22084 0.00402
-0.04743 0.09634 0.18127
0.13906 0.10748 0.16881
-0.06471 0.07923 -0.02980
-0.07985 0.00114 -0.06227
-0.10069 0.02594 -0.03561
-0.12211 -0.10999 0.10397
-0.15695 0.11615 0.01985
0.02056 0.05204 0.12799
-0.03702 0.02886 -0.05512
0.09723 -0.11810 0.00099
-0.00641 0.10585 -0.02528
-0.14744 0.17345 -0.14664
-0.07022 0.02535 -0.11379
-0.03999 0.02461 0.02967
0.03327 -0.06162 0.04064
-0.00014 0.11485 0.11243
-0.09643 0.04061 0.05331
0.05874 -0.04519 -0.07125
0.08582 0.08007 -0.00310
-0.04523 0.08344 0.07011
0.00147 -0.02609 -0.04424
0.04932 0.07059 0.10266
-0.02454 0.11280 -0.09521
-0.11219 -0.06753 0.03562
-0.09840 0.12295 0.00365
0.12203 -0.04440 0.02092
0.04904 0.20077 0.00841
0.00443 0.05837 0.19274
-0.09600 0.02411 -0.03623
0.02472 -0.04654 0.05740
-0.11406 -0.03515 0.04387
