# hidden_weights rows: [bias, w_x1, w_x2]
-0.14852 -0.08053 0.18044
0.01859 -0.02444 0.01451
-0.08779 -0.06367 0.08299
-0.18849 -0.07343 -0.03059
0.02997 -0.09230 -0.01380
0.06142 0.03700 -0.11114
-0.12575 0.07485 -0.12644
0.09017 0.33073 -0.06280
-0.18921 -0.10886 -0.16637
-0.11236 -0.09354 -0.04301
-0.06076 0.13484 -0.07662
-0.04223 0.07576 -0.02621
0.05132 0.10639 0.12733
-0.00816 0.14141 0.08683
-0.02878 -0.16621 0.07947
0.08308 -0.15107 -0.03590
0.16991 -0.08017 -0.04040
0.06652 0.31848 -0.03731
0.02855 -0.01513 -0.22335
0.24978 -0.03764 -0.01501
0.08217 0.06202 -0.01357
-0.01457 -0.00342 -0.17073
0.02243 0.09188 -0.08278
0.06370 -0.01204 -0.04285
0.07395 -0.07953 0.10770
0.12878 -0.08774 0.01318
0.08135 -0.02870 0.15734
0.06136 0.09024 0.16820
-0.05979 0.04597 0.08183
0.07807 -0.00691 0.00994
-0.00455 0.31572 0.05205
0.00513 -0.02976 -0.13647
-0.03930 0.17018 -0.06807
0.15686 0.02638 -0.05538
0.13954 0.03176 0.06445
0.02750 0.04859 -0.21564
0.10859 0.14441 0.16330
-0.03786 -0.11575 -0.20197
0.02596 -0.02383 -0.05550
0.03547 0.02753 0.13192
-0.07670 0.02970 -0.02824
-0.02720 0.08580 -0.17411
0.02957 -0.09342 -0.18285
-0.07419 -0.04635 0.03881
-0.07295 0.00102 0.06156
-0.00211 0.09763 -0.07313
0.15151 0.17964 -0.01634
-0.04629 -0.02054 -0.28837
-0.12269 -0.02591 -0.07632
0.06017 0.11516 -0.06429
0.04778 -0.17422 -0.10502
0.05125 -0.02029 -0.05212
-0.02610 -0.02311 -0.08571
0.13358 -0.11071 0.00920
-0.17894 -0.11323 0.07469
-0.04077 0.15365 0.14387
-0.23271 0.02215 -0.13264
0.08295 -0.10760 0.22087
-0.11530 0.07711 -0.00876
0.04654 -0.17474 -0.05929
-0.00921 0.00709 0.02914
0.16502 0.13650 -0.01869
-0.03187 -0.01850 -0.06466
0.04208 0.02649 -0.08947
-0.12793 -0.13049 0.02158
0.03209 -0.21307 0.22464
-0.03765 -0.20993 -0.11181
-0.13767 0.00516 -0.00233
-0.00866 -0.03126 -0.01155
-0.08754 -0.06680 0.00116
0.27505 0.14755 0.00242
0.08403 -0.05365 -0.00649
0.14894 0.02122 -0.05478
-0.07506 0.07791 -0.13191
-0.16767 0.03003 -0.18224
-0.04435 0.03998 -0.13559
0.03177 0.09049 -0.02342
-0.01014 -0.10315 -0.05276
0.00994 0.00986 -0.08418
-0.01645 -0.16237 -0.10799
-0.22701 0.13347 0.00018
0.06074 0.08441 -0.05981
-0.19742 -0.05290 -0.11336
-0.11986 -0.07834 -0.04658
-0.01889 -0.05004 -0.10895
-0.05888 -0.17320 -0.24655
0.00521 -0.04539 0.04982
0.03963 0.06520 0.04482
-0.02489 -0.08765 -0.07068
0.16396 0.06072 0.00398
0.11032 -0.06673 0.09934
0.00996 -0.16020 -0.21169
-0.07295 0.12847 0.04715
0.04426 0.08678 -0.07799
0.07146 -0.10947 -0.02540
-0.01849 -0.07844 -0.11976
0.03156 0.02428 -0.05033
-0.12398 -0.20026 -0.03829
-0.05757 -0.03530 0.09116
0.05690 0.06894 0.05327
