# hidden_weights rows: [bias, w_x1, w_x2]
0.01114 0.17793 -0.04414
-0.08999 -0.09929 -0.03764
0.09958 0.16145 -0.08559
0.04584 0.10032 -0.07319
0.03490 0.08252 -0.08116
0.04604 0.18167 0.17038
-0.08374 0.20603 0.01912
0.09635 -0.04629 0.00741
-0.08210 0.01663 0.02988
0.03366 -0.03205 0.11694
0.04977 0.07925 0.21049
0.01312 0.03536 0.07732
-0.01499 -0.17148 0.03615
0.04054 0.16699 -0.09892
-0.08646 -0.04581 -0.09102
0.00411 0.06895 0.11826
0.01504 0.19584 -0.11979
0.18204 -0.03964 -0.14011
0.13964 0.01916 -0.09748
-0.07441 -0.07399 -0.12078
-0.04110 0.03829 -0.07937
-0.05083 -0.01783 0.04975
-0.09616 0.07227 0.03214
0.04516 -0.00164 0.07827
0.08688 -0.11148 -0.15723
-0.14419 -0.03030 0.10931
0.01484 0.11026 -0.07893
0.04801 -0.05805 -0.12417
0.09795 -0.03301 0.01436
0.07071 -0.10489 0.13737
-0.04517 -0.01373 0.05346
0.00440 -0.05585 0.20674
-0.00606 -0.03557 -0.14180
-0.04432 0.06659 0.10812
-0.15387 0.12882 -0.07141
-0.12583 -0.17808 0.05913
-0.10229 0.02108 0.01456
0.00238 -0.00415 -0.09432
-0.04645 -0.04384 0.02144
0.02473 -0.03433 0.00673
0.11686 0.03176 0.11026
0.08678 0.08721 0.03610
-0.12471 -0.13294 -0.02746
-0.09465 0.06482 0.01287
-0.01062 -0.13899 -0.00553
-0.04527 -0.04936 0.03791
-0.08738 0.15285 0.02994
0.18446 0.10778 0.00946
0.02030 0.01154 -0.00497
-0.01163 0.09147 -0.01168
