# hidden_weights rows: [bias, w_x1, w_x2]
-0.04921 0.16467 0.06718
0.09814 -0.19904 -0.03234
-0.08721 -0.02839 -0.11736
0.11373 0.00967 -0.12035
-0.00609 0.03633 0.00053
0.00224 0.00758 0.03787
-0.12142 0.00991 -0.10131
0.01051 0.00780 0.03206
0.04911 0.13015 -0.07109
-0.02497 -0.22297 -0.07355
-0.03564 -0.17258 0.16251
0.01604 0.15516 0.07702
-0.09951 -0.03282 -0.14990
-0.13752 0.14764 0.04086
-0.22890 -0.06542 0.14630
0.00938 0.02871 -0.04530
0.13002 0.01330 -0.11440
0.20592 0.04067 0.05784
0.23417 0.07349 0.43695
-0.07108 0.15892 -0.10240
-0.06659 -0.15110 0.05979
-0.15353 0.19772 0.34235
-0.10652 0.13023 -0.08829
0.03703 0.17276 0.05293
0.09239 0.19015 -0.14902
-0.11207 -0.06930 -0.03534
-0.02875 0.08200 0.27205
-0.10707 0.06820 0.10676
-0.09827 0.15333 0.12144
-0.02155 0.04939 0.16117
-0.04283 -0.20570 -0.02445
-0.22254 0.05216 -0.22133
-0.07176 0.19732 -0.14248
-0.22286 0.06605 -0.09307
-0.04806 -0.10180 0.14553
-0.00428 0.13331 0.21060
0.03477 0.15405 -0.01200
-0.01425 0.14243 0.18659
-0.10080 -0.12608 0.17819
-0.12636 0.16360 -0.10639
0.08962 0.10769 0.08655
0.04533 -0.00337 -0.01260
-0.05618 0.12939 -0.01662
-0.09327 -0.14488 0.19699
-0.12284 -0.28397 0.15283
-0.08969 0.00933 0.19503
0.12512 0.24754 -0.02973
0.03091 -0.04929 0.04123
0.01327 -0.06892 -0.05493
-0.01685 -0.06997 -0.09036
-0.09112 0.17335 0.05019
-0.15987 0.03946 0.07892
-0.06843 -0.21946 0.09261
0.03796 0.00188 -0.13116
-0.05821 0.18098 -0.10997
-0.30797 -0.05136 0.12420
0.15115 0.05729 0.18897
-0.03396 -0.00071 0.04754
0.01474 -0.06703 0.02363
-0.07181 -0.03880 0.11091
-0.02997 0.19688 -0.01021
0.14207 -0.07314 0.05011
-0.01792 0.06456 0.04495
-0.04727 0.00725 0.18566
0.08667 -0.05227 -0.08556
-0.00387 -0.00108 -0.06896
0.12761 -0.20977 -0.16436
0.01663 -0.05556 0.22172
-0.09024 0.11411 0.03186
0.05170 -0.13050 -0.05001
-0.02201 -0.01075 0.06758
-0.16938 0.08187 0.04297
0.26311 0.02136 0.09764
-0.02144 -0.06489 0.08668
0.10842 -0.12479 0.06577
0.00489 0.05852 0.02884
-0.07772 0.08841 0.13130
-0.07908 0.07111 0.14866
0.14085 -0.05147 -0.00274
-0.07153 0.17139 -0.01256
0.07596 -0.08155 0.07443
-0.03646 -0.01066 -0.08723
-0.12147 -0.22708 -0.18692
-0.09299 -0.13368 0.17116
0.11637 0.05814 0.00620
0.03552 0.03749 0.17334
0.15384 0.04189 -0.03973
0.14458 0.28673 0.05511
-0.24893 0.01203 0.00597
0.00171 -0.04377 -0.20639
0.03924 0.16732 -0.15233
0.01736 0.04670 0.06596
-0.00780 -0.00204 0.05142
-0.03037 -0.01200 0.10064
0.17342 -0.11464 -0.07769
-0.06733 -0.18007 -0.07454
-0.11533 -0.18293 -0.04856
-0.22653 -0.15447 0.13923
-0.06386 -0.08083 -0.02454
-0.02192 0.01887 -0.15384
