# hidden_weights rows: [bias, w_x1, w_x2]
-0.01260 0.03836 0.15656
-0.21063 0.05452 -0.07497
0.00596 0.00199 0.14743
0.00644 -0.03482 -0.08015
-0.05910 -0.12580 0.03588
-0.03745 -0.05487 -0.10991
-0.08963 -0.18547 -0.02337
0.00258 -0.09350 0.03904
-0.04385 0.04966 -0.00604
0.02053 -0.08412 0.19772
-0.24974 -0.06180 -0.02487
0.10927 -0.12259 -0.10695
-0.01953 0.04028 -0.21436
-0.07295 -0.06360 -0.04503
-0.24124 0.02598 -0.03110
-0.00838 0.07188 -0.07682
0.03441 0.25386 0.01254
-0.02102 0.02313 0.00304
0.13257 -0.09181 -0.04858
0.04450 0.13577 -0.16784
0.09666 -0.02067 0.01974
0.12107 -0.03187 -0.12735
-0.15793 0.08397 -0.01298
-0.12915 -0.00279 -0.00052
0.12363 -0.13760 -0.04189
-0.21225 0.05513 -0.00829
-0.19961 0.11651 -0.01153
-0.11365 0.02308 0.10517
0.01476 -0.10389 -0.21746
-0.11439 0.03256 -0.06634
0.20894 0.22492 0.11152
0.13075 0.06063 0.15749
0.06325 -0.03152 -0.05718
0.04830 0.09580 0.02176
0.00503 0.07336 0.22045
0.06229 0.15068 -0.12940
-0.12350 0.12077 -0.04167
0.06398 0.00031 -0.01573
0.21218 0.08261 -0.01852
0.09288 0.02142 0.12781
-0.03596 -0.06075 -0.08848
-0.01350 0.07040 0.05956
0.08281 -0.01731 -0.01976
-0.06555 0.15376 -0.03575
0.10921 0.02896 -0.18199
-0.03742 0.10782 -0.06402
0.14186 0.10902 0.09767
-0.22193 -0.06442 -0.03253
0.02835 0.01513 0.10885
0.07499 0.12563 -0.06100
0.00430 0.06352 -0.00860
-0.00015 -0.08504 0.02561
-0.05837 0.07528 0.07428
0.06812 -0.09512 -0.13196
-0.19222 0.08445 0.24300
-0.05870 0.10033 -0.04575
0.06880 -0.00343 -0.10672
-0.21233 0.09264 -0.01958
-0.13746 0.03194 0.07841
-0.19476 -0.08006 0.16168
-0.06387 0.00387 -0.01102
0.15004 -0.09332 -0.25274
-0.00731 0.06156 -0.02184
-0.09208 -0.07902 0.04841
-0.10277 0.12534 -0.12220
0.12793 0.01590 0.00174
-0.00519 0.05344 -0.03968
0.02776 -0.02480 -0.06792
0.03564 0.09060 -0.02770
-0.04296 -0.10651 -0.12512
0.08375 -0.09030 0.08265
0.07872 0.02780 0.01702
-0.10463 0.00435 0.03363
0.07879 -0.13432 0.00304
-0.10741 0.16982 -0.00490
-0.06844 0.01015 0.07338
0.10763 0.04293 0.22458
0.01451 0.02283 -0.02132
0.17016 -0.00397 0.03434
-0.09305 0.05018 0.07103
0.11729 0.01242 0.00801
-0.07397 0.02151 -0.11116
0.00694 -0.10820 -0.01197
0.20090 -0.05463 -0.07515
0.01039 0.00801 -0.03224
-0.07899 0.07643 -0.05785
0.16054 0.01530 0.10185
0.10704 -0.06222 -0.12802
-0.10028 0.16625 0.01769
0.00611 0.05490 0.12411
-0.11527 0.00943 0.00434
-0.06275 -0.02329 0.02500
-0.03604 -0.27710 -0.20494
-0.08348 0.02073 -0.09490
0.00080 -0.14741 -0.01044
-0.13649 0.04951 0.03955
0.13580 0.00192 -0.09382
0.03107 -0.01947 -0.07849
0.12447 -0.05577 -0.05974
0.05862 -0.00147 -0.14379
