# hidden_weights rows: [bias, w_x1, w_x2]
-0.01013 -0.10039 0.13135
0.17877 0.15276 -0.10954
-0.02450 0.10582 0.04923
-0.02624 -0.07545 -0.08865
-0.00396 -0.23644 0.04521
-0.07815 -0.11144 -0.15713
0.01158 -0.11635 0.05246
0.00963 -0.19257 0.00020
-0.14719 0.02855 -0.11902
-0.03530 0.08012 0.05359
0.11250 0.14623 0.01481
-0.00126 0.30211 0.06697
0.07851 0.12290 -0.07829
-0.11483 -0.11852 0.13542
0.03294 0.07267 -0.02352
0.09189 0.03767 -0.06254
-0.00514 -0.05431 0.08650
-0.16352 -0.07204 0.14702
-0.15805 -0.06377 0.02335
-0.18063 -0.02615 0.09528
0.11397 0.02717 -0.06940
0.03857 0.14270 0.10685
0.07963 -0.02768 -0.16989
-0.03989 -0.14657 0.11237
-0.13559 0.01785 -0.28458
-0.06658 -0.04576 -0.04645
-0.11643 -0.08653 0.12157
0.15384 -0.06161 0.02528
0.02906 -0.11301 -0.07451
0.05586 -0.09999 0.22877
0.00706 -0.02425 0.02429
-0.08727 -0.14072 0.03881
0.03905 0.07648 0.09392
-0.03210 0.03251 0.01264
0.15571 -0.14946 0.00292
-0.07934 -0.07369 0.10919
0.10758 -0.05814 0.02452
0.04043 -0.07996 0.06274
-0.12375 0.13494 0.07329
-0.13211 -0.04802 -0.05524
-0.12123 -0.01484 -0.04377
-0.09194 0.11468 0.13830
-0.05368 -0.05200 0.09491
-0.02758 0.15979 -0.03246
-0.07500 -0.18230 -0.02372
-0.00266 -0.24761 -0.01545
-0.08334 -0.02460 -0.17991
0.12227 -0.02925 -0.00614
-0.08944 0.01036 0.12742
0.05893 -0.02744 -0.11704
