# hidden_weights rows: [bias, w_x1, w_x2]
-0.06015 -0.04452 -0.03836
0.06804 0.02241 -0.06026
-0.10569 0.01265 -0.11464
0.00902 0.03140 0.04116
0.07004 0.06241 -0.14128
0.05823 -0.14741 -0.02993
0.07230 -0.23507 -0.06632
-0.00792 0.09364 -0.02797
-0.02888 -0.06085 -0.14429
-0.01783 -0.01967 -0.11061
-0.01371 0.10397 -0.06938
-0.13151 0.00758 -0.01232
0.08586 -0.05157 0.24572
0.06729 0.00262 0.06595
0.09803 -0.09438 0.01631
0.12808 -0.01936 -0.32273
-0.01234 0.01135 0.12651
0.04801 0.06280 0.17135
0.12249 0.02522 -0.04668
0.15120 -0.24417 0.20955
-0.14373 0.12592 -0.02882
-0.17334 0.09498 0.02566
-0.23985 0.14515 -0.04001
-0.02785 0.00040 0.07064
-0.04304 -0.03910 -0.07359
0.09772 -0.06311 0.01545
-0.06462 0.14199 -0.23599
-0.01284 0.04523 0.03206
-0.07173 0.05689 -0.18164
0.10876 -0.17517 0.00842
-0.04760 -0.04773 0.01774
-0.19613 -0.00942 -0.07248
0.16293 -0.03815 -0.13466
-0.02317 -0.02712 0.05151
0.01454 0.04064 -0.11836
0.11572 0.01810 -0.02000
0.08627 -0.16473 0.01160
-0.11297 -0.01539 0.16919
-0.08207 0.15513 0.03514
0.08424 -0.02711 0.17747
-0.11007 0.07601 0.01187
0.00777 0.17274 -0.09739
-0.04542 -0.01383 -0.01193
-0.15674 -0.05644 -0.08256
-0.02206 -0.07901 -0.22486
0.00119 0.03250 -0.06113
0.00252 -0.18255 -0.00255
-0.03631 0.04019 0.24298
0.23120 0.03184 0.15097
-0.06283 -0.19973 -0.07451
