# hidden_weights rows: [bias, w_x1, w_x2]
-0.04690 -0.00630 -0.05771
-0.02595 0.03775 -0.03641
-0.07456 -0.21520 -0.24934
-0.15217 -0.12518 -0.13107
-0.02184 0.00647 -0.21829
-0.00164 -0.16240 0.01590
0.12964 0.12094 -0.09303
-0.04668 -0.01357 -0.16135
-0.01596 -0.08487 -0.04876
0.04177 -0.02006 -0.12584
0.19156 -0.05790 -0.01821
0.04032 0.02648 0.16815
-0.05495 0.19008 -0.13159
0.01356 0.06741 0.00394
-0.05262 0.03003 -0.05970
-0.00637 -0.05443 -0.13484
-0.03034 -0.01984 -0.00419
0.03544 0.06455 -0.00766
0.01652 -0.10410 0.00775
-0.08970 0.10585 -0.02223
0.12945 -0.15451 0.03687
0.03655 -0.00053 -0.07184
-0.01310 0.12795 0.15211
-0.18589 -0.02979 0.21348
-0.08836 -0.05344 -0.02528
0.15933 0.02737 -0.14974
-0.00763 0.06397 -0.04020
-0.02065 0.01171 -0.08128
0.06393 -0.12350 0.08685
-0.01675 0.02594 -0.02988
-0.10096 -0.01095 -0.01104
-0.12188 0.08501 0.02889
-0.30662 -0.16598 -0.01639
0.05666 0.10167 -0.21099
-0.18795 -0.03273 -0.19751
0.03974 -0.07887 -0.01012
-0.10189 0.16969 -0.05596
0.24519 0.06310 0.14965
0.15637 -0.00406 -0.00313
-0.04686 -0.07323 -0.08937
-0.12816 -0.11934 0.06848
-0.00253 -0.07184 -0.17060
-0.17116 0.13258 0.11381
0.11383 0.23495 -0.12186
0.08540 0.16927 0.06638
0.06740 0.13662 0.01466
-0.17711 0.01326 0.01884
0.07846 -0.03061 0.01575
-0.04432 -0.13468 -0.22209
0.14008 -0.11575 0.20718
