# hidden_weights rows: [bias, w_x1, w_x2]
0.03730 0.07499 0.02239
-0.18393 -0.04900 -0.00165
-0.09955 0.04417 0.01309
0.00559 0.07671 -0.21297
0.27653 -0.04469 -0.01423
0.03682 0.01061 0.16914
0.11910 0.03994 -0.00442
0.06869 -0.08348 0.01336
0.16959 -0.08252 -0.02696
-0.00654 -0.03507 -0.12656
-0.00062 0.03713 -0.01343
0.13507 0.18556 -0.02589
0.04223 0.05917 0.07114
0.24327 0.00195 -0.12487
0.14295 -0.18284 0.12712
-0.09991 0.01180 -0.19007
0.11064 -0.12365 -0.00451
-0.15475 0.10504 -0.00174
-0.00441 -0.05883 -0.05282
-0.12594 -0.09116 0.02203
0.18895 0.06792 0.08137
-0.12064 0.10067 -0.01546
-0.11302 0.00063 -0.05080
-0.05311 -0.11049 -0.04021
0.01147 0.08492 0.02924
-0.09425 -0.17076 0.07135
0.00671 0.10443 -0.09638
0.02338 0.00529 0.07364
-0.00208 -0.14718 0.02215
-0.08416 -0.02171 0.05654
0.04866 0.02148 0.19972
-0.01466 -0.00716 0.10309
-0.03078 0.08614 -0.05397
-0.09571 0.11052 0.07327
0.05395 0.06204 0.01809
-0.17504 0.00666 0.04786
0.06265 -0.15152 0.07109
0.04470 0.08320 0.01671
0.04020 -0.03338 0.05970
0.05959 -0.24636 -0.05631
0.18774 0.07444 0.10041
0.06270 -0.01212 0.01106
0.18140 -0.10045 -0.04084
-0.02397 0.18303 0.17799
-0.04434 -0.06492 0.12059
0.05287 -0.11825 -0.07526
-0.05291 -0.03612 -0.00205
-0.04780 -0.01629 0.19384
0.08487 0.01824 0.06543
0.10249 0.05670 -0.15135
0.13658 -0.04082 -0.11889
0.11219 0.05896 -0.02537
-0.04819 0.09733 -0.00451
0.23033 -0.08718 0.05970
-0.20418 0.10621 0.16144
0.00332 -0.07757 0.10777
0.01610 0.13551 -0.12258
0.05311 0.00577 0.13607
-0.03718 0.10204 0.00965
0.02277 -0.03009 0.07759
0.16304 0.09837 -0.33731
-0.07147 -0.03063 0.07926
-0.11041 -0.16729 0.11815
-0.00631 -0.02572 0.01149
-0.05235 0.04438 0.05073
0.04014 0.06210 0.12777
0.06040 0.05676 -0.06179
-0.01840 0.02934 0.06001
0.07682 -0.12576 0.16222
-0.17863 0.01311 -0.12455
0.01728 -0.07138 -0.03566
0.11400 0.02687 -0.07498
0.04605 -0.06353 0.01879
-0.12300 0.03648 0.10640
0.12780 -0.01488 -0.08094
0.07330 0.17781 0.03578
0.01167 -0.09033 -0.07876
0.02236 -0.04471 -0.08365
0.06377 -0.01153 -0.12322
0.02891 0.00769 0.09801
-0.00317 0.21010 -0.10127
0.13407 0.05926 -0.04059
0.00404 -0.04135 0.14933
-0.13621 -0.03769 -0.04841
-0.15564 -0.01878 -0.04989
-0.18449 -0.03256 0.05066
0.11766 0.01123 -0.11025
-0.09404 -0.21305 -0.20168
-0.08395 0.05927 -0.15420
0.13764 0.02039 -0.07326
-0.03465 -0.00072 -0.10884
-0.00417 -0.07891 -0.01797
-0.02026 0.04469 -0.07797
-0.08945 -0.04378 -0.00644
-0.17202 0.01317 -0.00646
-0.23603 -0.06581 0.12813
0.04255 0.00184 -0.00476
0.07379 0.01596 -0.06163
-0.04942 -0.01107 -0.07883
0.02780 0.00155 -0.09681
