# hidden_weights rows: [bias, w_x1, w_x2]
0.00640 0.11720 -0.00438
-0.02102 0.04974 0.17350
-0.18855 0.09654 0.03153
0.07997 0.12533 0.08296
0.13849 -0.14510 0.05361
0.04632 0.11038 0.12592
-0.04572 0.02789 -0.00449
0.05005 0.08631 0.18818
-0.03349 -0.05909 0.05198
0.10597 -0.02604 0.09286
-0.09913 0.04077 -0.09852
-0.06941 -0.08479 0.14390
0.01034 -0.11933 0.07819
0.06421 0.05813 0.01142
-0.11695 0.11468 -0.09260
0.17192 0.02778 -0.06838
0.05494 0.02721 -0.02822
-0.01692 -0.05971 -0.12074
0.19492 0.04395 -0.10694
-0.05262 -0.17408 0.12494
0.04706 -0.09822 -0.04879
0.22851 -0.01695 -0.06904
-0.12678 0.02139 -0.01248
0.00092 -0.00202 0.05391
0.06877 -0.01131 0.10389
-0.06045 0.20260 -0.12708
-0.03384 -0.00915 -0.03459
-0.01886 -0.11514 0.04849
0.17881 -0.24419 -0.01627
0.22461 0.01366 0.07293
0.02488 0.05970 0.16258
-0.16814 0.03526 -0.10782
0.01578 0.00388 0.05290
-0.03599 0.03811 -0.02773
-0.08393 -0.03945 -0.00563
-0.04707 -0.20719 0.12597
-0.02010 0.04920 -0.09954
-0.22673 -0.05730 0.00952
-0.08362 -0.13557 0.02467
-0.05591 0.06335 0.08097
-0.08647 -0.14059 0.01244
0.01096 -0.12604 -0.01793
-0.06417 -0.03647 -0.10407
-0.05807 -0.09242 -0.00380
-0.02148 0.01701 -0.17507
0.01943 -0.01925 0.11982
-0.11664 -0.17872 0.04416
0.05463 -0.05390 0.01707
-0.05974 0.00675 0.00359
0.04320 0.06277 0.10042
