# hidden_weights rows: [bias, w_x1, w_x2]
-0.03986 -0.03459 -0.12246
0.15292 0.05007 0.07575
0.16320 0.02421 -0.09731
0.03493 -0.00546 -0.06059
0.15408 -0.04401 0.10337
-0.03089 -0.04973 0.14091
0.13244 0.13204 0.01109
0.06950 -0.09732 -0.03265
-0.17046 -0.15641 0.04005
-0.06784 0.07860 -0.01131
0.13895 -0.04277 0.01044
0.06605 -0.05382 -0.05562
0.00040 0.07249 -0.11975
0.00499 0.04495 0.07667
-0.11196 0.05572 0.07509
0.08311 0.16101 -0.21343
-0.07351 0.11898 -0.00090
-0.04982 -0.07267 0.11181
0.05484 -0.16759 -0.00394
-0.05666 -0.05537 -0.08077
-0.05603 -0.17380 0.19194
0.03875 -0.01791 -0.12518
0.05569 -0.09144 0.08140
-0.15585 -0.03675 0.09441
0.16674 -0.05520 0.11559
0.14185 0.10453 0.06756
0.13801 0.08564 0.11060
0.05044 0.24927 -0.11122
-0.10723 0.16502 -0.07352
0.00907 0.06505 -0.06690
-0.00560 0.06294 -0.09450
-0.09870 -0.13676 0.00346
0.35742 0.01722 -0.03639
-0.16734 -0.08013 0.09559
-0.05464 0.09102 0.03921
0.14281 -0.03418 -0.01180
-0.00119 -0.04472 0.14452
0.05008 0.09346 -0.08272
-0.02070 0.10717 0.17491
0.09878 -0.00113 0.00805
0.00424 0.00345 0.11072
0.02198 -0.06999 0.14829
-0.06320 -0.03866 -0.03487
0.01348 0.04000 0.27846
-0.10918 -0.02576 0.07251
0.25223 0.04793 -0.15734
-0.03199 0.02798 0.17027
0.10365 0.09353 -0.02047
-0.04782 -0.12695 0.11611
0.10966 -0.03232 -0.06666
0.02428 0.08146 -0.02275
-0.00079 0.05691 -0.02014
-0.11029 0.17608 0.09313
-0.12488 -0.00909 -0.11740
0.12876 0.02933 -0.09301
0.07386 -0.07688 -0.12775
-0.00169 0.10476 -0.09756
-0.00025 -0.06314 0.05158
0.08897 0.12003 0.12904
0.05248 -0.10479 0.08753
-0.00896 -0.04043 0.16637
0.00596 0.04352 -0.01738
0.09653 0.17205 0.02306
-0.25915 0.20264 -0.03487
-0.10152 -0.02481 -0.17239
-0.16552 -0.05708 0.01441
0.19455 -0.06674 -0.11725
-0.01689 -0.14445 0.06458
0.00072 0.06003 0.06434
-0.14222 -0.06344 -0.03362
-0.02218 0.10720 -0.08342
-0.10960 0.07469 0.03739
0.05020 -0.03736 0.02177
-0.02525 0.01469 0.02749
0.01093 -0.14068 0.15444
0.11303 -0.07174 -0.03607
-0.08081 0.07754 0.04416
0.08783 0.11546 0.16916
-0.03806 0.05777 0.01580
0.02317 0.05269 -0.11817
-0.00766 -0.04466 0.04247
0.17673 -0.07412 -0.17503
-0.03178 -0.15197 0.04588
0.04825 -0.00790 0.10520
-0.07148 0.03010 -0.18203
-0.07110 0.16635 0.09590
-0.03228 0.05646 0.00389
-0.15190 -0.03856 0.01195
0.23676 0.01318 0.04220
0.06097 0.09373 0.02034
0.02074 -0.07134 -0.02805
0.13586 0.00227 0.01975
0.16075 0.07537 -0.02907
-0.09841 -0.12922 -0.06226
0.12810 0.04054 -0.17359
-0.08354 -0.08376 0.13718
-0.01743 0.12658 -0.12509
0.01580 0.07385 0.20364
-0.18862 0.22827 -0.04823
-0.15631 -0.02073 -0.12045
