# hidden_weights rows: [bias, w_x1, w_x2]
-0.00480 0.01838 -0.09797
0.07354 0.01781 -0.08349
-0.21928 -0.10079 0.00402
-0.04515 0.01643 -0.07453
0.09507 0.05671 0.01352
-0.00274 0.05181 -0.00076
0.05118 -0.10433 0.00333
-0.06460 0.03182 0.03705
-0.19848 0.24974 0.13718
0.04711 0.01024 -0.02152
0.24806 -0.07588 0.00729
-0.08913 -0.08575 0.01149
-0.02198 -0.05955 -0.01269
-0.04765 -0.08252 0.19186
-0.06467 -0.04800 -0.04997
0.03068 -0.03043 0.03239
-0.05448 -0.14711 0.10190
0.09998 0.02499 -0.14742
-0.06945 0.10832 0.18719
0.20900 0.19156 0.06720
0.05922 -0.06463 0.11874
-0.01764 0.03604 -0.00021
-0.05048 0.21309 0.18380
-0.08661 0.01124 -0.18284
0.01701 -0.12150 -0.16942
0.01785 -0.03877 -0.12034
-0.02327 -0.03228 0.03463
0.06639 -0.14650 0.13026
0.11454 0.09422 0.02848
0.09782 0.09259 0.12173
-0.00120 0.03908 -0.09718
0.02374 -0.14697 0.08135
-0.23677 -0.04257 -0.01221
0.09569 -0.08368 -0.14600
-0.06813 -0.01190 -0.07037
0.08558 0.08322 0.11454
-0.05844 0.04803 0.06331
-0.04031 -0.16219 0.17954
0.00821 0.13459 0.05385
0.00992 -0.14436 0.01247
-0.03838 -0.06077 -0.05412
0.07580 -0.11757 0.11262
-0.24842 -0.14595 0.03760
-0.07084 0.09415 -0.08820
-0.07975 -0.08323 -0.03820
0.08811 -0.01827 -0.00324
0.04188 -0.02642 0.03966
-0.07774 0.02667 0.13265
0.18214 0.07592 -0.12643
0.00628 0.10996 -0.13924
