# hidden_weights rows: [bias, w_x1, w_x2]
-0.05135 0.25527 -0.02814
-0.01404 -0.04410 -0.08220
0.12550 -0.08856 -0.06025
-0.06651 0.02466 0.02298
-0.15195 0.20691 -0.26127
-0.00220 -0.01052 0.04076
-0.01685 -0.21197 0.10779
0.01322 -0.12387 0.21282
-0.21070 0.18618 0.01376
-0.04793 -0.21270 0.20432
0.04592 -0.04806 0.06582
-0.02732 0.16895 0.02278
0.03389 -0.07616 -0.03561
0.21118 0.00274 0.06529
-0.05184 -0.05165 -0.04107
-0.01053 0.09617 -0.02498
0.08453 -0.06462 0.03431
-0.02015 -0.08130 0.12151
-0.10773 0.03299 -0.04830
-0.04625 0.09477 0.14886
0.07555 -0.08295 0.15446
-0.02226 0.05439 -0.12374
0.06458 -0.04494 0.02348
-0.01046 -0.11281 -0.01199
0.05088 -0.17608 0.12109
-0.03325 -0.12970 0.14303
0.11925 0.05082 -0.09073
0.08558 0.05920 0.00617
0.09038 0.05108 0.16761
-0.20249 0.19327 -0.11306
0.02454 -0.06760 0.04354
-0.12037 0.00811 0.06679
0.02553 0.00388 0.06096
0.00666 -0.01093 0.10940
0.05083 0.12208 -0.07671
0.10745 0.04139 0.06839
-0.00140 0.19224 -0.15888
0.12684 0.03696 -0.03643
0.07665 0.10760 0.10743
0.07460 -0.22246 0.18742
0.11456 -0.15334 -0.00737
-0.03961 0.04923 -0.12949
-0.03300 -0.03492 0.01635
-0.10481 -0.06654 -0.16259
0.01524 0.07224 -0.09214
-0.16160 0.08851 0.04593
-0.03399 -0.14276 0.20817
-0.05102 0.00057 -0.03397
-0.02042 0.13553 0.08163
-0.05407 -0.27086 0.16047
