# hidden_weights rows: [bias, w_x1, w_x2]
0.03350 0.00942 -0.05618
-0.13036 -0.10918 -0.03037
0.02027 0.06478 -0.01109
-0.04860 -0.00646 0.11199
-0.10987 0.07730 -0.00592
0.07827 -0.00783 -0.00185
0.08216 0.04460 -0.03070
-0.09114 0.03662 -0.01823
-0.07700 -0.00387 -0.01135
0.10803 -0.03141 0.06480
0.00638 -0.03407 -0.10629
0.12518 0.07439 -0.08560
-0.17041 -0.20353 0.12799
-0.03377 0.04848 -0.04881
-0.15241 0.15276 0.16572
0.03425 -0.02564 -0.08937
0.03474 0.01857 -0.15803
0.08923 0.05092 -0.06881
0.13464 0.05790 -0.11758
0.23472 -0.08544 0.11234
0.05902 0.15515 -0.05557
-0.06556 -0.06240 -0.00678
0.00399 0.11903 0.15026
0.11104 -0.10104 0.17984
0.08440 -0.03930 -0.02668
-0.02898 -0.00307 -0.01332
0.07790 -0.09706 0.06699
-0.10375 0.13011 -0.08609
0.07407 -0.08983 0.12939
-0.00362 0.38698 0.03667
-0.06285 0.01318 -0.04287
-0.26050 -0.00166 -0.03892
0.03131 -0.05977 -0.04936
-0.02716 -0.01723 0.01558
-0.13402 -0.03913 -0.13418
0.10224 -0.11927 0.12884
-0.06050 0.11510 -0.07808
-0.04517 0.02675 -0.02820
0.02268 0.03602 -0.07938
0.05559 -0.02487 0.02995
0.14836 0.11175 0.11411
0.02822 -0.07173 0.01823
-0.01300 0.03111 -0.12092
-0.01991 -0.29346 -0.06175
0.12054 0.01954 0.04031
-0.06536 -0.17358 0.17798
-0.07853 0.10944 0.02541
-0.08197 -0.13058 -0.13811
-0.06902 -0.17459 -0.04703
-0.11058 0.02318 0.12743
-0.19193 0.10376 -0.18830
0.07898 -0.09498 0.04953
-0.02469 0.04060 0.13316
-0.05603 -0.13497 0.06886
-0.05371 0.12582 -0.06808
-0.05023 0.17685 0.03065
-0.16871 -0.01461 0.09788
0.16444 -0.01888 -0.02747
0.06223 -0.01956 0.02672
-0.05365 0.00124 -0.05436
-0.09345 -0.01041 -0.01319
-0.10961 -0.01743 0.15859
0.05739 0.15125 -0.00063
0.09829 0.00051 0.01787
0.19350 0.11289 0.04444
0.21109 -0.07766 -0.03221
-0.02291 -0.03043 0.09205
0.07325 0.10526 0.14204
-0.03102 -0.09881 -0.00519
-0.06368 0.05975 0.07273
0.00982 -0.08406 -0.14843
0.05986 -0.11059 -0.10571
0.09375 0.10943 0.12224
0.09358 0.01917 -0.08839
-0.17298 -0.07851 -0.03789
-0.01103 0.12701 0.01153
0.19752 0.04930 -0.11731
-0.07345 0.09681 0.00850
-0.09571 0.12484 0.00249
0.14605 -0.01506 0.26854
-0.10519 -0.11826 -0.22927
0.06780 -0.02471 0.00952
0.05308 0.14116 -0.00006
0.07901 -0.02092 0.17291
0.03759 -0.04917 0.00488
0.17389 -0.12177 0.09925
-0.03196 0.23099 0.01002
-0.12152 -0.02418 0.06019
0.06056 0.08411 0.10583
0.06608 0.03704 -0.00141
-0.05578 0.07827 0.08577
0.08039 -0.07828 0.22905
-0.04018 -0.29348 0.08234
-0.02288 0.00362 0.13856
-0.03325 0.02620 0.03946
0.08394 0.09872 -0.08600
0.00928 0.01301 -0.06747
0.13620 0.05118 0.14113
0.01820 0.25260 -0.05308
0.01037 0.01754 0.08014
