# hidden_weights rows: [bias, w_x1, w_x2]
0.09225 0.12918 -0.03252
-0.04129 -0.01524 0.13428
0.12667 0.04039 0.01055
0.14934 -0.04614 0.08556
0.04927 0.17852 0.08446
0.01482 0.01009 -0.10746
-0.01494 -0.00451 -0.09071
0.06869 -0.00130 0.02646
0.04524 -0.07774 -0.11021
0.16397 -0.23334 -0.03592
0.15560 -0.04649 0.14356
-0.23518 0.05232 0.31513
-0.08211 -0.08188 -0.03250
0.05187 0.12115 0.14525
0.00357 0.15204 0.07329
0.15730 -0.03161 0.14360
0.07412 0.04646 0.04268
0.03098 -0.13745 0.10280
0.06690 0.01441 -0.17036
-0.01002 -0.10325 0.03738
0.06977 0.00958 -0.08114
-0.02930 -0.05401 0.10913
0.05357 0.08378 0.15333
0.24317 -0.02801 0.17173
0.11341 0.03608 0.04006
0.02304 0.12935 -0.04299
-0.11805 -0.04298 -0.10030
-0.09244 0.16044 -0.03140
-0.02519 0.07172 -0.06813
0.05744 -0.07611 -0.14521
0.10422 -0.02782 -0.05199
-0.02986 0.04345 0.15973
-0.06147 0.08095 -0.08173
-0.17225 0.06165 -0.01252
-0.07085 0.03803 0.14889
-0.07822 -0.21318 0.07506
0.18474 -0.01796 0.16103
0.01900 -0.05018 -0.09830
0.00805 0.15149 -0.01833
-0.21140 -0.11321 -0.11994
0.05950 0.19535 -0.01685
0.14266 -0.03509 -0.08682
-0.09844 -0.20960 0.06065
-0.04701 0.00577 0.09023
-0.12019 0.12984 0.16701
-0.01776 -0.08068 0.05687
-0.14560 0.11024 0.01282
0.05612 0.17467 -0.09987
0.02666 -0.20733 0.07463
-0.08071 0.16820 -0.21052
-0.01423 0.13456 -0.03708
-0.20426 -0.14333 0.06296
-0.02201 0.02946 0.01167
0.10466 0.22378 0.07919
-0.09777 0.22823 0.07180
-0.13085 -0.17896 0.07893
-0.02508 0.25634 0.06897
-0.04573 -0.13824 -0.04198
-0.02089 -0.07129 0.01490
-0.11624 0.04792 0.02145
0.02551 0.00959 0.19515
-0.17190 -0.10763 -0.04607
0.05128 -0.04569 0.14084
-0.02202 -0.07046 0.26365
0.14766 0.16415 -0.04442
-0.02602 0.27780 0.03651
0.02660 0.09168 0.08310
0.09945 -0.18237 0.23948
0.04849 0.37569 0.01241
-0.06762 -0.03962 0.03142
0.08345 0.05042 0.01849
0.07172 -0.20562 0.03252
0.07618 0.05540 0.12941
0.11794 0.02618 0.01506
0.22390 0.04798 -0.01244
0.14905 -0.01576 0.03858
-0.07650 -0.20476 0.12635
-0.13227 -0.06908 0.10105
0.08408 -0.19534 -0.08656
0.04008 -0.02576 0.11682
0.12915 -0.03747 -0.12901
0.04838 0.04994 0.02743
0.08572 -0.01228 0.01032
-0.00568 -0.02762 -0.04126
0.01442 0.26903 0.09184
-0.11661 0.16952 0.04830
0.05680 -0.14600 0.11192
0.02867 0.04673 0.00008
0.21525 -0.02148 -0.19761
-0.08580 -0.01614 0.05781
-0.04368 0.17927 -0.05570
0.16642 0.29260 0.00080
0.05860 0.08348 0.00632
0.12749 0.00831 0.12833
0.10168 -0.10394 -0.16426
0.14065 0.06452 0.13376
0.03765 0.08052 0.00781
-0.02502 0.03427 -0.13506
-0.04050 0.17824 -0.15872
-0.05765 -0.13163 0.06700
