# hidden_weights rows: [bias, w_x1, w_x2]
-0.09038 0.00129 0.06442
-0.02080 0.03825 -0.00387
0.03155 0.27368 -0.17087
-0.01404 -0.12950 0.09157
0.03734 -0.03470 -0.06055
-0.06791 0.16545 -0.04327
-0.24977 0.02538 -0.04299
0.08251 -0.15644 -0.04340
-0.00146 0.13246 -0.06900
-0.05396 -0.17614 0.04043
0.01283 0.05732 -0.02836
0.06212 0.09575 0.01187
0.04452 0.00820 -0.12062
-0.17908 0.05272 0.18203
0.01397 -0.12701 0.03804
0.02312 0.05579 0.00211
-0.08656 -0.02261 0.02460
-0.07133 -0.06018 -0.08897
-0.10101 0.04961 0.01386
-0.10843 -0.07930 0.02301
-0.04847 -0.09772 -0.21553
-0.00555 0.03488 -0.07410
0.07038 -0.11827 0.25493
-0.15499 -0.08539 -0.04727
-0.08706 0.02927 -0.08691
-0.11141 -0.02005 -0.08581
0.07112 0.08043 -0.06420
0.02322 0.02998 0.09261
-0.05398 0.10137 -0.10543
0.09886 -0.01558 -0.13899
0.04388 0.07672 -0.14669
-0.16107 0.07575 0.11318
0.11889 -0.04505 -0.13793
-0.01892 -0.21461 0.05200
-0.08711 -0.01694 -0.08113
0.04753 0.04710 -0.02878
0.00829 0.07846 -0.13673
0.01107 0.06228 -0.08086
-0.00633 -0.03036 0.01065
0.10539 0.06659 0.14280
0.00214 0.06161 0.11011
0.04788 -0.18370 0.00638
0.15724 0.02697 -0.01068
-0.21951 -0.06690 -0.03512
-0.07944 -0.10896 -0.12269
-0.08068 -0.10458 -0.10778
-0.02320 -0.06595 0.10752
0.13195 -0.08857 -0.07129
-0.00984 0.00399 -0.03380
-0.16705 -0.00282 -0.07960
0.05832 0.20482 0.05087
0.01449 0.01760 -0.03097
-0.09076 0.06890 0.03865
-0.06886 0.05666 -0.02385
-0.06563 0.03542 -0.02283
-0.06093 -0.06643 0.06174
0.06616 0.01179 0.06719
0.10638 -0.00018 -0.15532
0.14041 -0.01428 0.12019
0.13134 0.13230 0.04290
0.12312 0.15245 0.06851
-0.09808 -0.01130 0.20035
0.14664 -0.00205 0.01644
0.05766 -0.08610 0.03939
0.08409 0.11214 -0.03657
0.15974 -0.28966 0.26254
0.00122 0.03443 0.02284
-0.04715 0.05726 -0.06894
0.11662 -0.06102 0.10859
0.04054 -0.10956 0.08649
0.13569 -0.09471 0.18055
-0.06827 0.05638 -0.18451
0.01991 0.05239 0.00489
0.10978 -0.16365 0.14511
0.19045 0.00567 0.04440
0.08383 0.06986 0.06304
0.06568 0.07246 -0.04890
-0.06327 0.12202 -0.10207
0.03905 0.02971 -0.01800
0.08693 -0.13723 -0.02433
0.03787 -0.04636 0.16187
0.10347 0.08214 0.11412
0.08390 0.01564 0.08788
0.02423 -0.03140 0.09100
-0.10267 -0.18352 -0.18031
-0.01452 -0.02750 -0.05759
-0.04398 -0.05567 0.12451
-0.05283 -0.04271 0.04070
0.04302 0.03939 -0.02185
0.07316 0.05656 -0.03481
-0.16835 -0.02486 0.03425
-0.03968 -0.01692 -0.08450
-0.07136 -0.25748 0.12377
-0.01766 -0.09111 0.10290
-0.01343 -0.02715 -0.09698
-0.00364 -0.16157 0.08287
-0.16641 0.01030 0.05006
-0.18992 0.01124 -0.01000
0.08550 0.01077 -0.00359
0.08893 0.12372 0.03552
