# hidden_weights rows: [bias, w_x1, w_x2]
-0.05019 0.03748 -0.12679
0.03628 0.02343 0.02012
0.04526 -0.34685 0.08766
0.03846 0.18991 -0.07384
0.06501 0.07687 0.02931
-0.00369 0.10777 0.17776
0.07543 0.00890 0.03420
-0.01173 -0.03047 -0.07075
-0.12579 0.10787 0.03829
-0.08201 -0.01329 0.00004
-0.01279 -0.01290 0.10126
0.18779 -0.11943 -0.14434
-0.02229 0.13928 -0.07474
-0.12117 0.00810 0.03255
-0.00577 0.16199 0.04676
-0.06694 0.13155 -0.02195
-0.02097 -0.07273 -0.06173
0.04041 -0.05095 0.02873
-0.03149 -0.09141 0.01945
0.02060 0.03595 -0.21513
-0.00668 -0.11269 -0.10229
0.01409 -0.02549 0.00215
0.04828 0.15236 0.05300
-0.02352 0.08725 0.02644
-0.10714 0.10219 -0.00158
-0.01209 -0.01540 -0.13452
0.04043 0.12069 -0.06984
-0.03631 0.03105 -0.04351
-0.07145 0.11626 0.03181
-0.26224 -0.00932 0.03718
-0.07757 0.06922 0.05116
-0.07160 -0.13846 -0.04984
-0.00057 -0.05884 0.09150
0.07223 0.02126 -0.12007
0.05929 -0.03251 0.06274
-0.16078 -0.00635 -0.01670
0.19122 0.18136 -0.03779
0.17323 0.08320 0.06372
0.05314 -0.06212 -0.10499
-0.31052 0.03516 -0.16244
-0.02091 0.09488 0.15632
-0.00361 0.01583 0.12255
-0.04026 0.12658 0.11136
0.09941 0.01891 -0.11303
0.05192 -0.10779 0.01726
0.03263 -0.11007 0.02386
-0.09816 0.13782 -0.07049
-0.09774 0.14181 -0.08018
0.12418 -0.11167 0.09633
-0.04270 -0.05678 0.12839
0.05030 -0.04417 0.06570
-0.05443 -0.11039 0.10337
-0.06052 0.02989 -0.03824
0.12907 -0.14997 -0.22436
-0.08136 -0.01714 -0.05394
-0.01139 0.09176 0.12392
-0.03294 0.17987 -0.16206
0.02474 0.10199 -0.04430
-0.13431 0.08607 -0.01163
0.23387 0.09563 -0.02674
0.20954 -0.00859 -0.12000
-0.05275 -0.04174 0.10066
0.15668 -0.01413 0.02971
0.09701 0.07515 0.05500
-0.06666 -0.17384 0.00292
0.05466 -0.02347 -0.02711
-0.11614 -0.10366 0.06841
-0.11366 0.07756 -0.08524
-0.00749 -0.10495 -0.05749
0.10671 0.03784 -0.00293
0.16823 0.08935 -0.10826
0.12441 0.01517 -0.04973
-0.08088 0.06457 -0.03482
0.02471 -0.06648 0.16245
0.06144 0.02992 0.00888
0.05808 0.13280 0.07962
-0.02292 0.18048 -0.09439
-0.08279 -0.16539 -0.09208
0.12673 -0.10809 -0.09722
-0.01271 0.03428 -0.13216
-0.03846 -0.03064 0.02039
0.17492 -0.01491 0.07721
-0.07059 -0.00056 -0.04387
0.11278 -0.04274 0.02432
-0.00512 -0.12528 0.01823
0.00619 -0.00599 -0.01924
-0.01189 -0.10095 0.13315
-0.04827 0.10511 -0.00756
0.02989 -0.04742 0.02874
0.09466 -0.01194 0.04479
0.01203 0.07600 -0.04205
0.00282 -0.07975 0.19260
-0.00006 0.02278 0.09344
0.07124 -0.03122 -0.05034
0.12506 -0.01731 0.05291
-0.11437 0.05262 0.01443
-0.07280 -0.02604 0.09334
-0.08524 0.13757 -0.11499
0.02309 0.02453 0.05472
-0.02587 0.07361 0.08582
