# hidden_weights rows: [bias, w_x1, w_x2]
-0.16081 -0.06975 0.02336
0.05341 0.07889 -0.03372
-0.04779 0.20784 0.14114
0.07766 -0.02814 -0.05793
-0.10883 0.03756 -0.09044
-0.07514 0.05729 -0.09268
-0.10066 -0.08462 0.25710
-0.01094 0.05997 0.03256
-0.09871 0.07766 0.05506
-0.07933 -0.08446 0.04474
0.13058 -0.09411 0.07044
-0.02260 0.09294 0.18229
0.19753 0.08239 -0.01105
-0.11183 0.12831 0.00958
0.04411 -0.04570 0.05697
0.06161 -0.02454 0.21637
0.05496 -0.07916 0.05687
-0.22884 -0.02238 -0.01064
-0.10072 -0.00757 0.21537
0.11089 0.08986 -0.01508
-0.03284 -0.10354 0.08067
0.19063 -0.04859 -0.14107
-0.01016 -0.08261 -0.05511
0.06624 0.06349 0.12926
0.02742 0.12534 0.11594
0.06436 -0.15960 0.01394
-0.31731 0.12557 -0.05199
0.02489 0.31909 0.04539
0.06354 0.08808 -0.08514
0.11837 0.26443 0.04610
-0.07902 -0.00162 0.11252
-0.02705 0.14120 -0.15978
0.03477 -0.10921 -0.01375
-0.17544 -0.07559 -0.10745
0.17566 -0.22033 0.02864
0.17769 0.01832 0.04480
-0.03797 0.03965 -0.02563
-0.04707 -0.02176 0.05810
0.09272 0.01703 -0.01833
0.10222 0.11115 0.10936
0.00496 0.07930 -0.11898
-0.05799 0.09416 0.05381
0.02595 0.06220 -0.12127
0.03912 0.06204 -0.09997
0.03567 0.03557 0.13694
0.08602 0.17105 -0.03163
-0.02731 -0.03429 -0.01218
-0.06785 -0.06127 -0.11911
-0.01316 -0.09111 0.01479
0.21786 -0.03272 -0.13445
