# hidden_weights rows: [bias, w_x1, w_x2]
0.06989 0.00131 -0.03223
0.01897 0.04141 -0.15645
-0.09399 -0.00182 0.02408
0.14192 -0.00601 -0.07362
-0.00813 -0.23198 -0.12824
-0.10789 -0.10449 0.18639
-0.05540 0.09751 -0.15123
-0.02106 0.09339 0.05188
-0.03242 -0.13259 0.05351
-0.10588 0.09117 0.08064
0.37475 -0.02506 0.06534
0.00700 0.17550 0.10066
0.11533 0.23254 -0.01528
-0.07290 -0.01681 0.10718
0.00969 0.00091 -0.12735
-0.00312 0.04331 -0.10037
-0.05778 -0.06992 -0.11076
0.09402 -0.13844 -0.12530
0.08552 0.05738 0.15245
0.09979 -0.14396 -0.11211
0.04218 0.04969 -0.06712
0.14482 -0.08788 -0.05941
0.06553 0.03008 0.01317
0.12764 -0.09962 -0.00431
0.03124 0.02551 0.02636
-0.01819 -0.03985 0.00068
-0.03547 -0.01961 -0.05669
0.10732 -0.01143 0.09835
0.01082 -0.00868 0.05737
0.04348 0.15085 0.06593
0.11128 -0.00391 0.01759
-0.03815 0.07165 -0.06108
-0.02179 -0.19708 -0.08404
0.03682 0.04820 -0.24089
0.14027 -0.09520 0.03138
0.06709 -0.08367 0.07459
-0.06187 0.16751 0.00098
-0.00039 -0.00205 0.00650
0.18417 -0.00009 0.06960
-0.15644 -0.12781 0.05492
0.17184 0.02693 0.10667
-0.02406 0.14906 -0.00748
0.02279 -0.20551 -0.02478
0.00610 -0.03771 0.20662
0.13612 0.02313 0.16976
0.08304 0.01069 -0.06733
0.17576 0.11814 -0.12463
-0.13313 -0.00485 -0.07179
-0.05353 -0.09298 0.01731
-0.04208 -0.07661 -0.02090
