# hidden_weights rows: [bias, w_x1, w_x2]
-0.05472 0.15986 -0.04842
-0.03514 -0.01984 0.02198
-0.05341 -0.06467 -0.28721
0.00799 0.11260 -0.15177
0.03537 0.06622 0.25286
0.09160 0.10953 -0.02981
0.05314 -0.08866 -0.07429
0.02979 -0.16990 0.00180
-0.00293 -0.01241 0.07626
-0.02085 0.11230 -0.15074
0.03519 0.01227 0.06538
-0.05735 0.23579 0.04414
-0.14370 -0.15161 0.08055
-0.21492 0.03869 -0.06716
0.06673 -0.05685 0.15879
0.08434 0.07482 -0.01484
-0.09733 0.06541 0.08280
0.01543 -0.15169 -0.03052
-0.00325 -0.04255 0.03934
-0.13535 0.09445 0.07138
0.04058 0.23333 -0.06493
0.05090 -0.05792 0.08607
0.17194 -0.03382 0.00305
-0.07179 -0.00012 -0.00937
-0.05246 0.00212 -0.06453
-0.06671 0.31697 -0.05612
-0.11565 -0.16740 0.01989
0.03488 -0.03918 -0.01449
-0.06324 0.00511 0.37548
0.12890 0.13266 0.01258
0.00936 0.03310 0.13902
-0.11518 0.00548 0.15441
0.13021 0.01253 0.02741
0.09826 0.00559 0.07688
0.01964 0.10874 0.01649
0.06154 -0.02044 0.05912
-0.10641 -0.10593 0.09200
0.03498 0.14466 -0.02987
-0.16738 0.00446 -0.07442
-0.10097 0.06496 0.10259
0.11369 0.01172 -0.01428
-0.03908 -0.09173 -0.02326
-0.01333 -0.12862 0.06040
-0.00855 0.03373 0.02062
-0.00637 0.13218 -0.13817
0.01976 -0.00671 0.19357
-0.03754 -0.20944 0.12710
0.01373 0.16686 0.01847
-0.13149 -0.19378 0.05216
0.05398 -0.11749 0.10326
-0.04308 0.22782 -0.22679
-0.01032 -0.00262 -0.11512
0.01343 0.11653 0.09093
0.12769 0.09661 -0.09481
-0.11787 0.05343 0.08292
0.09345 0.06578 -0.00117
0.04346 -0.05198 0.04679
0.11586 0.11086 -0.05514
0.08087 0.08072 -0.12781
0.08988 0.07791 -0.23383
-0.02334 -0.19286 0.10524
0.08749 0.10168 0.01422
-0.04382 -0.03328 -0.01225
0.26291 0.12498 0.03618
-0.01395 0.03730 -0.18389
-0.02876 0.11970 -0.07790
-0.02325 0.26594 -0.04817
-0.00952 0.01481 -0.01924
0.09479 0.07768 0.04626
0.10151 -0.03018 -0.15675
0.05278 0.07360 -0.08090
0.03929 -0.04157 0.00399
-0.02191 0.10961 -0.20515
0.01403 0.06361 0.12034
-0.12815 0.10369 0.03275
-0.01638 0.17540 -0.14780
-0.09267 0.26137 -0.00358
0.06622 -0.11521 0.00008
0.04550 0.31283 -0.07324
0.10398 0.15389 -0.03017
0.05621 -0.35947 -0.05434
-0.12056 -0.04097 -0.00230
0.05238 -0.04434 -0.06506
-0.06505 -0.09180 0.13843
-0.14549 -0.12810 0.04342
-0.02122 -0.07876 -0.08836
0.13752 0.08015 -0.05277
0.06194 -0.00661 0.09780
-0.03600 0.05325 -0.02794
0.05305 -0.04576 -0.05415
-0.01693 -0.07557 -0.00027
0.00896 -0.01160 0.10919
0.17782 0.15481 -0.15856
-0.09190 -0.03397 0.04666
-0.01022 -0.01281 0.05481
0.00340 0.00217 -0.10761
-0.02076 0.09052 0.04317
-0.04742 -0.09656 0.10923
0.00056 0.24194 0.07752
-0.03282 0.00884 -0.07018
